digraph Tree {
node [shape=box, style="filled, rounded", color="black", fontname=helvetica] ;
graph [ranksep=equally, splines=polyline] ;
edge [fontname=helvetica] ;
0 [label="Sex <= -0.312\nentropy = 0.959\nsamples = 692\nvalue = [428, 264]\nclass = y[0]", fillcolor="#f5cfb3"] ;
1 [label="Pclass <= 0.224\nentropy = 0.806\nsamples = 243\nvalue = [60, 183]\nclass = y[1]", fillcolor="#7abdee"] ;
0 -> 1 [labeldistance=2.5, labelangle=45, headlabel="True"] ;
2 [label="Fare <= -0.006\nentropy = 0.33\nsamples = 132\nvalue = [8, 124]\nclass = y[1]", fillcolor="#46a3e7"] ;
1 -> 2 ;
3 [label="Fare <= -0.041\nentropy = 0.544\nsamples = 56\nvalue = [7, 49]\nclass = y[1]", fillcolor="#55abe9"] ;
2 -> 3 ;
4 [label="Age <= -0.473\nentropy = 0.497\nsamples = 55\nvalue = [6, 49]\nclass = y[1]", fillcolor="#51a9e8"] ;
3 -> 4 ;
5 [label="entropy = 0.0\nsamples = 11\nvalue = [0, 11]\nclass = y[1]", fillcolor="#399de5"] ;
4 -> 5 ;
6 [label="Age <= -0.156\nentropy = 0.575\nsamples = 44\nvalue = [6, 38]\nclass = y[1]", fillcolor="#58ace9"] ;
4 -> 6 ;
7 [label="SibSp <= 1.31\nentropy = 0.918\nsamples = 9\nvalue = [3, 6]\nclass = y[1]", fillcolor="#9ccef2"] ;
6 -> 7 ;
8 [label="entropy = 0.985\nsamples = 7\nvalue = [3, 4]\nclass = y[1]", fillcolor="#cee6f8"] ;
7 -> 8 ;
9 [label="entropy = 0.0\nsamples = 2\nvalue = [0, 2]\nclass = y[1]", fillcolor="#399de5"] ;
7 -> 9 ;
10 [label="Age <= 0.598\nentropy = 0.422\nsamples = 35\nvalue = [3, 32]\nclass = y[1]", fillcolor="#4ca6e7"] ;
6 -> 10 ;
11 [label="entropy = 0.0\nsamples = 18\nvalue = [0, 18]\nclass = y[1]", fillcolor="#399de5"] ;
10 -> 11 ;
12 [label="entropy = 0.672\nsamples = 17\nvalue = [3, 14]\nclass = y[1]", fillcolor="#63b2eb"] ;
10 -> 12 ;
13 [label="entropy = 0.0\nsamples = 1\nvalue = [1, 0]\nclass = y[0]", fillcolor="#e58139"] ;
3 -> 13 ;
14 [label="Parch <= 1.496\nentropy = 0.101\nsamples = 76\nvalue = [1, 75]\nclass = y[1]", fillcolor="#3c9ee5"] ;
2 -> 14 ;
15 [label="entropy = 0.0\nsamples = 67\nvalue = [0, 67]\nclass = y[1]", fillcolor="#399de5"] ;
14 -> 15 ;
16 [label="Fare <= 2.246\nentropy = 0.503\nsamples = 9\nvalue = [1, 8]\nclass = y[1]", fillcolor="#52a9e8"] ;
14 -> 16 ;
17 [label="entropy = 0.0\nsamples = 6\nvalue = [0, 6]\nclass = y[1]", fillcolor="#399de5"] ;
16 -> 17 ;
18 [label="FamilySize <= 2.074\nentropy = 0.918\nsamples = 3\nvalue = [1, 2]\nclass = y[1]", fillcolor="#9ccef2"] ;
16 -> 18 ;
19 [label="entropy = 0.0\nsamples = 1\nvalue = [1, 0]\nclass = y[0]", fillcolor="#e58139"] ;
18 -> 19 ;
20 [label="entropy = 0.0\nsamples = 2\nvalue = [0, 2]\nclass = y[1]", fillcolor="#399de5"] ;
18 -> 20 ;
21 [label="FamilySize <= 2.074\nentropy = 0.997\nsamples = 111\nvalue = [52, 59]\nclass = y[1]", fillcolor="#e8f3fc"] ;
1 -> 21 ;
22 [label="Age <= -1.782\nentropy = 0.966\nsamples = 92\nvalue = [36, 56]\nclass = y[1]", fillcolor="#b8dcf6"] ;
21 -> 22 ;
23 [label="entropy = 0.0\nsamples = 8\nvalue = [0, 8]\nclass = y[1]", fillcolor="#399de5"] ;
22 -> 23 ;
24 [label="Age <= 0.677\nentropy = 0.985\nsamples = 84\nvalue = [36, 48]\nclass = y[1]", fillcolor="#cee6f8"] ;
22 -> 24 ;
25 [label="Age <= -1.425\nentropy = 0.969\nsamples = 78\nvalue = [31, 47]\nclass = y[1]", fillcolor="#bcdef6"] ;
24 -> 25 ;
26 [label="entropy = 0.0\nsamples = 2\nvalue = [2, 0]\nclass = y[0]", fillcolor="#e58139"] ;
25 -> 26 ;
27 [label="Embarked <= -0.039\nentropy = 0.959\nsamples = 76\nvalue = [29, 47]\nclass = y[1]", fillcolor="#b3d9f5"] ;
25 -> 27 ;
28 [label="entropy = 0.842\nsamples = 37\nvalue = [10, 27]\nclass = y[1]", fillcolor="#82c1ef"] ;
27 -> 28 ;
29 [label="entropy = 1.0\nsamples = 39\nvalue = [19, 20]\nclass = y[1]", fillcolor="#f5fafe"] ;
27 -> 29 ;
30 [label="Age <= 2.025\nentropy = 0.65\nsamples = 6\nvalue = [5, 1]\nclass = y[0]", fillcolor="#ea9a61"] ;
24 -> 30 ;
31 [label="entropy = 0.0\nsamples = 5\nvalue = [5, 0]\nclass = y[0]", fillcolor="#e58139"] ;
30 -> 31 ;
32 [label="entropy = 0.0\nsamples = 1\nvalue = [0, 1]\nclass = y[1]", fillcolor="#399de5"] ;
30 -> 32 ;
33 [label="FamilySize <= 3.593\nentropy = 0.629\nsamples = 19\nvalue = [16, 3]\nclass = y[0]", fillcolor="#ea995e"] ;
21 -> 33 ;
34 [label="entropy = 0.0\nsamples = 12\nvalue = [12, 0]\nclass = y[0]", fillcolor="#e58139"] ;
33 -> 34 ;
35 [label="FamilySize <= 4.352\nentropy = 0.985\nsamples = 7\nvalue = [4, 3]\nclass = y[0]", fillcolor="#f8e0ce"] ;
33 -> 35 ;
36 [label="Age <= -1.306\nentropy = 0.971\nsamples = 5\nvalue = [2, 3]\nclass = y[1]", fillcolor="#bddef6"] ;
35 -> 36 ;
37 [label="Age <= -1.901\nentropy = 0.918\nsamples = 3\nvalue = [2, 1]\nclass = y[0]", fillcolor="#f2c09c"] ;
36 -> 37 ;
38 [label="entropy = 0.0\nsamples = 1\nvalue = [0, 1]\nclass = y[1]", fillcolor="#399de5"] ;
37 -> 38 ;
39 [label="entropy = 0.0\nsamples = 2\nvalue = [2, 0]\nclass = y[0]", fillcolor="#e58139"] ;
37 -> 39 ;
40 [label="entropy = 0.0\nsamples = 2\nvalue = [0, 2]\nclass = y[1]", fillcolor="#399de5"] ;
36 -> 40 ;
41 [label="entropy = 0.0\nsamples = 2\nvalue = [2, 0]\nclass = y[0]", fillcolor="#e58139"] ;
35 -> 41 ;
42 [label="Has_Cabin <= 0.666\nentropy = 0.681\nsamples = 449\nvalue = [368, 81]\nclass = y[0]", fillcolor="#eb9d65"] ;
0 -> 42 [labeldistance=2.5, labelangle=-45, headlabel="False"] ;
43 [label="Age <= -2.06\nentropy = 0.55\nsamples = 369\nvalue = [322, 47]\nclass = y[0]", fillcolor="#e99356"] ;
42 -> 43 ;
44 [label="entropy = 0.0\nsamples = 6\nvalue = [0, 6]\nclass = y[1]", fillcolor="#399de5"] ;
43 -> 44 ;
45 [label="Title <= -2.641\nentropy = 0.509\nsamples = 363\nvalue = [322, 41]\nclass = y[0]", fillcolor="#e89152"] ;
43 -> 45 ;
46 [label="FamilySize <= 1.695\nentropy = 0.94\nsamples = 14\nvalue = [9, 5]\nclass = y[0]", fillcolor="#f3c7a7"] ;
45 -> 46 ;
47 [label="entropy = 0.0\nsamples = 5\nvalue = [0, 5]\nclass = y[1]", fillcolor="#399de5"] ;
46 -> 47 ;
48 [label="entropy = 0.0\nsamples = 9\nvalue = [9, 0]\nclass = y[0]", fillcolor="#e58139"] ;
46 -> 48 ;
49 [label="Fare <= -0.08\nentropy = 0.479\nsamples = 349\nvalue = [313, 36]\nclass = y[0]", fillcolor="#e88f50"] ;
45 -> 49 ;
50 [label="Age <= 0.241\nentropy = 0.425\nsamples = 312\nvalue = [285, 27]\nclass = y[0]", fillcolor="#e78d4c"] ;
49 -> 50 ;
51 [label="Age <= 0.102\nentropy = 0.48\nsamples = 232\nvalue = [208, 24]\nclass = y[0]", fillcolor="#e89050"] ;
50 -> 51 ;
52 [label="entropy = 0.441\nsamples = 219\nvalue = [199, 20]\nclass = y[0]", fillcolor="#e88e4d"] ;
51 -> 52 ;
53 [label="entropy = 0.89\nsamples = 13\nvalue = [9, 4]\nclass = y[0]", fillcolor="#f1b991"] ;
51 -> 53 ;
54 [label="Fare <= -0.398\nentropy = 0.231\nsamples = 80\nvalue = [77, 3]\nclass = y[0]", fillcolor="#e68641"] ;
50 -> 54 ;
55 [label="entropy = 0.323\nsamples = 51\nvalue = [48, 3]\nclass = y[0]", fillcolor="#e78945"] ;
54 -> 55 ;
56 [label="entropy = 0.0\nsamples = 29\nvalue = [29, 0]\nclass = y[0]", fillcolor="#e58139"] ;
54 -> 56 ;
57 [label="Fare <= -0.072\nentropy = 0.8\nsamples = 37\nvalue = [28, 9]\nclass = y[0]", fillcolor="#edaa79"] ;
49 -> 57 ;
58 [label="Age <= 1.827\nentropy = 0.918\nsamples = 6\nvalue = [2, 4]\nclass = y[1]", fillcolor="#9ccef2"] ;
57 -> 58 ;
59 [label="entropy = 0.0\nsamples = 4\nvalue = [0, 4]\nclass = y[1]", fillcolor="#399de5"] ;
58 -> 59 ;
60 [label="entropy = 0.0\nsamples = 2\nvalue = [2, 0]\nclass = y[0]", fillcolor="#e58139"] ;
58 -> 60 ;
61 [label="Fare <= 0.512\nentropy = 0.637\nsamples = 31\nvalue = [26, 5]\nclass = y[0]", fillcolor="#ea995f"] ;
57 -> 61 ;
62 [label="entropy = 0.297\nsamples = 19\nvalue = [18, 1]\nclass = y[0]", fillcolor="#e68844"] ;
61 -> 62 ;
63 [label="entropy = 0.918\nsamples = 12\nvalue = [8, 4]\nclass = y[0]", fillcolor="#f2c09c"] ;
61 -> 63 ;
64 [label="Age <= -0.91\nentropy = 0.984\nsamples = 80\nvalue = [46, 34]\nclass = y[0]", fillcolor="#f8decb"] ;
42 -> 64 ;
65 [label="entropy = 0.0\nsamples = 6\nvalue = [0, 6]\nclass = y[1]", fillcolor="#399de5"] ;
64 -> 65 ;
66 [label="Fare <= -0.473\nentropy = 0.957\nsamples = 74\nvalue = [46, 28]\nclass = y[0]", fillcolor="#f5ceb2"] ;
64 -> 66 ;
67 [label="entropy = 0.0\nsamples = 6\nvalue = [6, 0]\nclass = y[0]", fillcolor="#e58139"] ;
66 -> 67 ;
68 [label="Age <= 1.074\nentropy = 0.977\nsamples = 68\nvalue = [40, 28]\nclass = y[0]", fillcolor="#f7d9c4"] ;
66 -> 68 ;
69 [label="Age <= -0.592\nentropy = 0.996\nsamples = 39\nvalue = [18, 21]\nclass = y[1]", fillcolor="#e3f1fb"] ;
68 -> 69 ;
70 [label="entropy = 0.0\nsamples = 2\nvalue = [2, 0]\nclass = y[0]", fillcolor="#e58139"] ;
69 -> 70 ;
71 [label="Fare <= 7.438\nentropy = 0.987\nsamples = 37\nvalue = [16, 21]\nclass = y[1]", fillcolor="#d0e8f9"] ;
69 -> 71 ;
72 [label="entropy = 0.995\nsamples = 35\nvalue = [16, 19]\nclass = y[1]", fillcolor="#e0f0fb"] ;
71 -> 72 ;
73 [label="entropy = 0.0\nsamples = 2\nvalue = [0, 2]\nclass = y[1]", fillcolor="#399de5"] ;
71 -> 73 ;
74 [label="Age <= 1.431\nentropy = 0.797\nsamples = 29\nvalue = [22, 7]\nclass = y[0]", fillcolor="#eda978"] ;
68 -> 74 ;
75 [label="entropy = 0.0\nsamples = 10\nvalue = [10, 0]\nclass = y[0]", fillcolor="#e58139"] ;
74 -> 75 ;
76 [label="Title <= -0.899\nentropy = 0.949\nsamples = 19\nvalue = [12, 7]\nclass = y[0]", fillcolor="#f4caac"] ;
74 -> 76 ;
77 [label="entropy = 0.0\nsamples = 3\nvalue = [0, 3]\nclass = y[1]", fillcolor="#399de5"] ;
76 -> 77 ;
78 [label="entropy = 0.811\nsamples = 16\nvalue = [12, 4]\nclass = y[0]", fillcolor="#eeab7b"] ;
76 -> 78 ;
{rank=same ; 0} ;
{rank=same ; 1; 42} ;
{rank=same ; 2; 21; 43; 64} ;
{rank=same ; 3; 14; 22; 33; 45; 66} ;
{rank=same ; 4; 16; 24; 35; 46; 49; 68} ;
{rank=same ; 6; 18; 25; 30; 36; 50; 57; 69; 74} ;
{rank=same ; 7; 10; 27; 37; 51; 54; 58; 61; 71; 76} ;
{rank=same ; 5; 8; 9; 11; 12; 13; 15; 17; 19; 20; 23; 26; 28; 29; 31; 32; 34; 38; 39; 40; 41; 44; 47; 48; 52; 53; 55; 56; 59; 60; 62; 63; 65; 67; 70; 72; 73; 75; 77; 78} ;
}